digraph Tree {
node [shape=box] ;
0 [label="X[13] <= 0.295\ngini = 0.012\nsamples = 10170\nvalue = [10109, 61]"] ;
1 [label="X[10] <= 0.352\ngini = 0.35\nsamples = 31\nvalue = [24, 7]"] ;
0 -> 1 [labeldistance=2.5, labelangle=45, headlabel="True"] ;
2 [label="X[30] <= 0.5\ngini = 0.198\nsamples = 27\nvalue = [24, 3]"] ;
1 -> 2 ;
3 [label="X[15] <= 0.058\ngini = 0.077\nsamples = 25\nvalue = [24, 1]"] ;
2 -> 3 ;
4 [label="X[37] <= 0.346\ngini = 0.5\nsamples = 2\nvalue = [1, 1]"] ;
3 -> 4 ;
5 [label="gini = 0.0\nsamples = 1\nvalue = [0, 1]"] ;
4 -> 5 ;
6 [label="gini = 0.0\nsamples = 1\nvalue = [1, 0]"] ;
4 -> 6 ;
7 [label="gini = 0.0\nsamples = 23\nvalue = [23, 0]"] ;
3 -> 7 ;
8 [label="gini = 0.0\nsamples = 2\nvalue = [0, 2]"] ;
2 -> 8 ;
9 [label="gini = 0.0\nsamples = 4\nvalue = [0, 4]"] ;
1 -> 9 ;
10 [label="X[15] <= 0.055\ngini = 0.011\nsamples = 10139\nvalue = [10085, 54]"] ;
0 -> 10 [labeldistance=2.5, labelangle=-45, headlabel="False"] ;
11 [label="X[13] <= 0.432\ngini = 0.004\nsamples = 7916\nvalue = [7902, 14]"] ;
10 -> 11 ;
12 [label="X[13] <= 0.432\ngini = 0.039\nsamples = 199\nvalue = [195, 4]"] ;
11 -> 12 ;
13 [label="X[10] <= 0.312\ngini = 0.03\nsamples = 198\nvalue = [195, 3]"] ;
12 -> 13 ;
14 [label="X[7] <= 0.19\ngini = 0.011\nsamples = 187\nvalue = [186, 1]"] ;
13 -> 14 ;
15 [label="X[7] <= 0.189\ngini = 0.142\nsamples = 13\nvalue = [12, 1]"] ;
14 -> 15 ;
16 [label="gini = 0.0\nsamples = 12\nvalue = [12, 0]"] ;
15 -> 16 ;
17 [label="gini = 0.0\nsamples = 1\nvalue = [0, 1]"] ;
15 -> 17 ;
18 [label="gini = 0.0\nsamples = 174\nvalue = [174, 0]"] ;
14 -> 18 ;
19 [label="X[15] <= 0.048\ngini = 0.298\nsamples = 11\nvalue = [9, 2]"] ;
13 -> 19 ;
20 [label="gini = 0.0\nsamples = 9\nvalue = [9, 0]"] ;
19 -> 20 ;
21 [label="gini = 0.0\nsamples = 2\nvalue = [0, 2]"] ;
19 -> 21 ;
22 [label="gini = 0.0\nsamples = 1\nvalue = [0, 1]"] ;
12 -> 22 ;
23 [label="X[7] <= 0.178\ngini = 0.003\nsamples = 7717\nvalue = [7707, 10]"] ;
11 -> 23 ;
24 [label="X[7] <= 0.178\ngini = 0.022\nsamples = 354\nvalue = [350, 4]"] ;
23 -> 24 ;
25 [label="X[37] <= 0.743\ngini = 0.017\nsamples = 352\nvalue = [349, 3]"] ;
24 -> 25 ;
26 [label="X[11] <= 0.406\ngini = 0.006\nsamples = 337\nvalue = [336, 1]"] ;
25 -> 26 ;
27 [label="gini = 0.0\nsamples = 317\nvalue = [317, 0]"] ;
26 -> 27 ;
28 [label="X[31] <= 0.053\ngini = 0.095\nsamples = 20\nvalue = [19, 1]"] ;
26 -> 28 ;
29 [label="X[13] <= 0.448\ngini = 0.5\nsamples = 2\nvalue = [1, 1]"] ;
28 -> 29 ;
30 [label="gini = 0.0\nsamples = 1\nvalue = [0, 1]"] ;
29 -> 30 ;
31 [label="gini = 0.0\nsamples = 1\nvalue = [1, 0]"] ;
29 -> 31 ;
32 [label="gini = 0.0\nsamples = 18\nvalue = [18, 0]"] ;
28 -> 32 ;
33 [label="X[15] <= 0.048\ngini = 0.231\nsamples = 15\nvalue = [13, 2]"] ;
25 -> 33 ;
34 [label="gini = 0.0\nsamples = 13\nvalue = [13, 0]"] ;
33 -> 34 ;
35 [label="gini = 0.0\nsamples = 2\nvalue = [0, 2]"] ;
33 -> 35 ;
36 [label="X[27] <= 0.051\ngini = 0.5\nsamples = 2\nvalue = [1, 1]"] ;
24 -> 36 ;
37 [label="gini = 0.0\nsamples = 1\nvalue = [1, 0]"] ;
36 -> 37 ;
38 [label="gini = 0.0\nsamples = 1\nvalue = [0, 1]"] ;
36 -> 38 ;
39 [label="X[41] <= 0.215\ngini = 0.002\nsamples = 7363\nvalue = [7357, 6]"] ;
23 -> 39 ;
40 [label="X[13] <= 0.501\ngini = 0.001\nsamples = 7097\nvalue = [7093, 4]"] ;
39 -> 40 ;
41 [label="X[31] <= 0.026\ngini = 0.001\nsamples = 6968\nvalue = [6965, 3]"] ;
40 -> 41 ;
42 [label="X[31] <= 0.025\ngini = 0.01\nsamples = 193\nvalue = [192, 1]"] ;
41 -> 42 ;
43 [label="gini = 0.0\nsamples = 186\nvalue = [186, 0]"] ;
42 -> 43 ;
44 [label="X[3] <= 0.5\ngini = 0.245\nsamples = 7\nvalue = [6, 1]"] ;
42 -> 44 ;
45 [label="gini = 0.0\nsamples = 6\nvalue = [6, 0]"] ;
44 -> 45 ;
46 [label="gini = 0.0\nsamples = 1\nvalue = [0, 1]"] ;
44 -> 46 ;
47 [label="X[37] <= 0.702\ngini = 0.001\nsamples = 6775\nvalue = [6773, 2]"] ;
41 -> 47 ;
48 [label="X[37] <= 0.702\ngini = 0.003\nsamples = 1310\nvalue = [1308, 2]"] ;
47 -> 48 ;
49 [label="X[25] <= 0.628\ngini = 0.002\nsamples = 1309\nvalue = [1308, 1]"] ;
48 -> 49 ;
50 [label="gini = 0.0\nsamples = 1239\nvalue = [1239, 0]"] ;
49 -> 50 ;
51 [label="X[25] <= 0.629\ngini = 0.028\nsamples = 70\nvalue = [69, 1]"] ;
49 -> 51 ;
52 [label="X[6] <= 0.512\ngini = 0.444\nsamples = 3\nvalue = [2, 1]"] ;
51 -> 52 ;
53 [label="gini = 0.0\nsamples = 1\nvalue = [0, 1]"] ;
52 -> 53 ;
54 [label="gini = 0.0\nsamples = 2\nvalue = [2, 0]"] ;
52 -> 54 ;
55 [label="gini = 0.0\nsamples = 67\nvalue = [67, 0]"] ;
51 -> 55 ;
56 [label="gini = 0.0\nsamples = 1\nvalue = [0, 1]"] ;
48 -> 56 ;
57 [label="gini = 0.0\nsamples = 5465\nvalue = [5465, 0]"] ;
47 -> 57 ;
58 [label="X[13] <= 0.501\ngini = 0.015\nsamples = 129\nvalue = [128, 1]"] ;
40 -> 58 ;
59 [label="gini = 0.0\nsamples = 1\nvalue = [0, 1]"] ;
58 -> 59 ;
60 [label="gini = 0.0\nsamples = 128\nvalue = [128, 0]"] ;
58 -> 60 ;
61 [label="X[15] <= 0.02\ngini = 0.015\nsamples = 266\nvalue = [264, 2]"] ;
39 -> 61 ;
62 [label="X[13] <= 0.438\ngini = 0.245\nsamples = 7\nvalue = [6, 1]"] ;
61 -> 62 ;
63 [label="gini = 0.0\nsamples = 1\nvalue = [0, 1]"] ;
62 -> 63 ;
64 [label="gini = 0.0\nsamples = 6\nvalue = [6, 0]"] ;
62 -> 64 ;
65 [label="X[37] <= 0.684\ngini = 0.008\nsamples = 259\nvalue = [258, 1]"] ;
61 -> 65 ;
66 [label="X[37] <= 0.683\ngini = 0.124\nsamples = 15\nvalue = [14, 1]"] ;
65 -> 66 ;
67 [label="gini = 0.0\nsamples = 14\nvalue = [14, 0]"] ;
66 -> 67 ;
68 [label="gini = 0.0\nsamples = 1\nvalue = [0, 1]"] ;
66 -> 68 ;
69 [label="gini = 0.0\nsamples = 244\nvalue = [244, 0]"] ;
65 -> 69 ;
70 [label="X[11] <= 0.375\ngini = 0.035\nsamples = 2223\nvalue = [2183, 40]"] ;
10 -> 70 ;
71 [label="X[12] <= 0.475\ngini = 0.023\nsamples = 1642\nvalue = [1623, 19]"] ;
70 -> 71 ;
72 [label="X[0] <= 0.766\ngini = 0.007\nsamples = 899\nvalue = [896, 3]"] ;
71 -> 72 ;
73 [label="X[22] <= 0.5\ngini = 0.004\nsamples = 890\nvalue = [888, 2]"] ;
72 -> 73 ;
74 [label="gini = 0.0\nsamples = 790\nvalue = [790, 0]"] ;
73 -> 74 ;
75 [label="X[29] <= 0.42\ngini = 0.039\nsamples = 100\nvalue = [98, 2]"] ;
73 -> 75 ;
76 [label="X[14] <= 0.425\ngini = 0.444\nsamples = 3\nvalue = [2, 1]"] ;
75 -> 76 ;
77 [label="gini = 0.0\nsamples = 1\nvalue = [0, 1]"] ;
76 -> 77 ;
78 [label="gini = 0.0\nsamples = 2\nvalue = [2, 0]"] ;
76 -> 78 ;
79 [label="X[4] <= 0.69\ngini = 0.02\nsamples = 97\nvalue = [96, 1]"] ;
75 -> 79 ;
80 [label="gini = 0.0\nsamples = 90\nvalue = [90, 0]"] ;
79 -> 80 ;
81 [label="X[0] <= 0.689\ngini = 0.245\nsamples = 7\nvalue = [6, 1]"] ;
79 -> 81 ;
82 [label="gini = 0.0\nsamples = 1\nvalue = [0, 1]"] ;
81 -> 82 ;
83 [label="gini = 0.0\nsamples = 6\nvalue = [6, 0]"] ;
81 -> 83 ;
84 [label="X[29] <= 0.675\ngini = 0.198\nsamples = 9\nvalue = [8, 1]"] ;
72 -> 84 ;
85 [label="gini = 0.0\nsamples = 8\nvalue = [8, 0]"] ;
84 -> 85 ;
86 [label="gini = 0.0\nsamples = 1\nvalue = [0, 1]"] ;
84 -> 86 ;
87 [label="X[29] <= 0.355\ngini = 0.042\nsamples = 743\nvalue = [727, 16]"] ;
71 -> 87 ;
88 [label="X[12] <= 0.54\ngini = 0.5\nsamples = 2\nvalue = [1, 1]"] ;
87 -> 88 ;
89 [label="gini = 0.0\nsamples = 1\nvalue = [1, 0]"] ;
88 -> 89 ;
90 [label="gini = 0.0\nsamples = 1\nvalue = [0, 1]"] ;
88 -> 90 ;
91 [label="X[7] <= 0.253\ngini = 0.04\nsamples = 741\nvalue = [726, 15]"] ;
87 -> 91 ;
92 [label="X[7] <= 0.253\ngini = 0.069\nsamples = 361\nvalue = [348, 13]"] ;
91 -> 92 ;
93 [label="X[23] <= 0.7\ngini = 0.064\nsamples = 360\nvalue = [348, 12]"] ;
92 -> 93 ;
94 [label="X[18] <= 0.367\ngini = 0.444\nsamples = 3\nvalue = [2, 1]"] ;
93 -> 94 ;
95 [label="gini = 0.0\nsamples = 2\nvalue = [2, 0]"] ;
94 -> 95 ;
96 [label="gini = 0.0\nsamples = 1\nvalue = [0, 1]"] ;
94 -> 96 ;
97 [label="X[18] <= 0.532\ngini = 0.06\nsamples = 357\nvalue = [346, 11]"] ;
93 -> 97 ;
98 [label="X[37] <= 0.788\ngini = 0.055\nsamples = 354\nvalue = [344, 10]"] ;
97 -> 98 ;
99 [label="X[15] <= 0.056\ngini = 0.05\nsamples = 351\nvalue = [342, 9]"] ;
98 -> 99 ;
100 [label="X[0] <= 0.694\ngini = 0.18\nsamples = 40\nvalue = [36, 4]"] ;
99 -> 100 ;
101 [label="X[0] <= 0.691\ngini = 0.408\nsamples = 14\nvalue = [10, 4]"] ;
100 -> 101 ;
102 [label="X[5] <= 0.5\ngini = 0.18\nsamples = 10\nvalue = [9, 1]"] ;
101 -> 102 ;
103 [label="gini = 0.0\nsamples = 8\nvalue = [8, 0]"] ;
102 -> 103 ;
104 [label="X[1] <= 0.57\ngini = 0.5\nsamples = 2\nvalue = [1, 1]"] ;
102 -> 104 ;
105 [label="gini = 0.0\nsamples = 1\nvalue = [1, 0]"] ;
104 -> 105 ;
106 [label="gini = 0.0\nsamples = 1\nvalue = [0, 1]"] ;
104 -> 106 ;
107 [label="X[12] <= 0.71\ngini = 0.375\nsamples = 4\nvalue = [1, 3]"] ;
101 -> 107 ;
108 [label="gini = 0.0\nsamples = 3\nvalue = [0, 3]"] ;
107 -> 108 ;
109 [label="gini = 0.0\nsamples = 1\nvalue = [1, 0]"] ;
107 -> 109 ;
110 [label="gini = 0.0\nsamples = 26\nvalue = [26, 0]"] ;
100 -> 110 ;
111 [label="X[41] <= 0.305\ngini = 0.032\nsamples = 311\nvalue = [306, 5]"] ;
99 -> 111 ;
112 [label="X[28] <= 0.5\ngini = 0.021\nsamples = 286\nvalue = [283, 3]"] ;
111 -> 112 ;
113 [label="X[4] <= 0.34\ngini = 0.014\nsamples = 276\nvalue = [274, 2]"] ;
112 -> 113 ;
114 [label="X[14] <= 0.18\ngini = 0.153\nsamples = 12\nvalue = [11, 1]"] ;
113 -> 114 ;
115 [label="X[14] <= 0.15\ngini = 0.5\nsamples = 2\nvalue = [1, 1]"] ;
114 -> 115 ;
116 [label="gini = 0.0\nsamples = 1\nvalue = [1, 0]"] ;
115 -> 116 ;
117 [label="gini = 0.0\nsamples = 1\nvalue = [0, 1]"] ;
115 -> 117 ;
118 [label="gini = 0.0\nsamples = 10\nvalue = [10, 0]"] ;
114 -> 118 ;
119 [label="X[7] <= 0.25\ngini = 0.008\nsamples = 264\nvalue = [263, 1]"] ;
113 -> 119 ;
120 [label="gini = 0.0\nsamples = 254\nvalue = [254, 0]"] ;
119 -> 120 ;
121 [label="X[7] <= 0.25\ngini = 0.18\nsamples = 10\nvalue = [9, 1]"] ;
119 -> 121 ;
122 [label="gini = 0.0\nsamples = 1\nvalue = [0, 1]"] ;
121 -> 122 ;
123 [label="gini = 0.0\nsamples = 9\nvalue = [9, 0]"] ;
121 -> 123 ;
124 [label="X[6] <= 0.513\ngini = 0.18\nsamples = 10\nvalue = [9, 1]"] ;
112 -> 124 ;
125 [label="gini = 0.0\nsamples = 9\nvalue = [9, 0]"] ;
124 -> 125 ;
126 [label="gini = 0.0\nsamples = 1\nvalue = [0, 1]"] ;
124 -> 126 ;
127 [label="X[6] <= 0.495\ngini = 0.147\nsamples = 25\nvalue = [23, 2]"] ;
111 -> 127 ;
128 [label="X[10] <= 0.385\ngini = 0.444\nsamples = 6\nvalue = [4, 2]"] ;
127 -> 128 ;
129 [label="gini = 0.0\nsamples = 4\nvalue = [4, 0]"] ;
128 -> 129 ;
130 [label="gini = 0.0\nsamples = 2\nvalue = [0, 2]"] ;
128 -> 130 ;
131 [label="gini = 0.0\nsamples = 19\nvalue = [19, 0]"] ;
127 -> 131 ;
132 [label="X[13] <= 0.468\ngini = 0.444\nsamples = 3\nvalue = [2, 1]"] ;
98 -> 132 ;
133 [label="gini = 0.0\nsamples = 1\nvalue = [0, 1]"] ;
132 -> 133 ;
134 [label="gini = 0.0\nsamples = 2\nvalue = [2, 0]"] ;
132 -> 134 ;
135 [label="X[27] <= 0.184\ngini = 0.444\nsamples = 3\nvalue = [2, 1]"] ;
97 -> 135 ;
136 [label="gini = 0.0\nsamples = 1\nvalue = [0, 1]"] ;
135 -> 136 ;
137 [label="gini = 0.0\nsamples = 2\nvalue = [2, 0]"] ;
135 -> 137 ;
138 [label="gini = 0.0\nsamples = 1\nvalue = [0, 1]"] ;
92 -> 138 ;
139 [label="X[23] <= 0.955\ngini = 0.01\nsamples = 380\nvalue = [378, 2]"] ;
91 -> 139 ;
140 [label="gini = 0.0\nsamples = 277\nvalue = [277, 0]"] ;
139 -> 140 ;
141 [label="X[18] <= 0.463\ngini = 0.038\nsamples = 103\nvalue = [101, 2]"] ;
139 -> 141 ;
142 [label="X[10] <= 0.429\ngini = 0.021\nsamples = 95\nvalue = [94, 1]"] ;
141 -> 142 ;
143 [label="gini = 0.0\nsamples = 77\nvalue = [77, 0]"] ;
142 -> 143 ;
144 [label="X[12] <= 0.62\ngini = 0.105\nsamples = 18\nvalue = [17, 1]"] ;
142 -> 144 ;
145 [label="gini = 0.0\nsamples = 1\nvalue = [0, 1]"] ;
144 -> 145 ;
146 [label="gini = 0.0\nsamples = 17\nvalue = [17, 0]"] ;
144 -> 146 ;
147 [label="X[0] <= 0.685\ngini = 0.219\nsamples = 8\nvalue = [7, 1]"] ;
141 -> 147 ;
148 [label="gini = 0.0\nsamples = 1\nvalue = [0, 1]"] ;
147 -> 148 ;
149 [label="gini = 0.0\nsamples = 7\nvalue = [7, 0]"] ;
147 -> 149 ;
150 [label="X[36] <= 0.5\ngini = 0.07\nsamples = 581\nvalue = [560, 21]"] ;
70 -> 150 ;
151 [label="X[7] <= 0.195\ngini = 0.05\nsamples = 546\nvalue = [532, 14]"] ;
150 -> 151 ;
152 [label="X[9] <= 0.16\ngini = 0.375\nsamples = 8\nvalue = [6, 2]"] ;
151 -> 152 ;
153 [label="gini = 0.0\nsamples = 6\nvalue = [6, 0]"] ;
152 -> 153 ;
154 [label="gini = 0.0\nsamples = 2\nvalue = [0, 2]"] ;
152 -> 154 ;
155 [label="X[31] <= 0.263\ngini = 0.044\nsamples = 538\nvalue = [526, 12]"] ;
151 -> 155 ;
156 [label="X[37] <= 0.756\ngini = 0.085\nsamples = 226\nvalue = [216, 10]"] ;
155 -> 156 ;
157 [label="X[37] <= 0.715\ngini = 0.062\nsamples = 217\nvalue = [210, 7]"] ;
156 -> 157 ;
158 [label="X[37] <= 0.601\ngini = 0.034\nsamples = 172\nvalue = [169, 3]"] ;
157 -> 158 ;
159 [label="X[1] <= 0.55\ngini = 0.18\nsamples = 20\nvalue = [18, 2]"] ;
158 -> 159 ;
160 [label="X[27] <= 0.014\ngini = 0.1\nsamples = 19\nvalue = [18, 1]"] ;
159 -> 160 ;
161 [label="X[10] <= 0.188\ngini = 0.5\nsamples = 2\nvalue = [1, 1]"] ;
160 -> 161 ;
162 [label="gini = 0.0\nsamples = 1\nvalue = [1, 0]"] ;
161 -> 162 ;
163 [label="gini = 0.0\nsamples = 1\nvalue = [0, 1]"] ;
161 -> 163 ;
164 [label="gini = 0.0\nsamples = 17\nvalue = [17, 0]"] ;
160 -> 164 ;
165 [label="gini = 0.0\nsamples = 1\nvalue = [0, 1]"] ;
159 -> 165 ;
166 [label="X[29] <= 0.665\ngini = 0.013\nsamples = 152\nvalue = [151, 1]"] ;
158 -> 166 ;
167 [label="gini = 0.0\nsamples = 143\nvalue = [143, 0]"] ;
166 -> 167 ;
168 [label="X[0] <= 0.673\ngini = 0.198\nsamples = 9\nvalue = [8, 1]"] ;
166 -> 168 ;
169 [label="gini = 0.0\nsamples = 1\nvalue = [0, 1]"] ;
168 -> 169 ;
170 [label="gini = 0.0\nsamples = 8\nvalue = [8, 0]"] ;
168 -> 170 ;
171 [label="X[0] <= 0.655\ngini = 0.162\nsamples = 45\nvalue = [41, 4]"] ;
157 -> 171 ;
172 [label="X[37] <= 0.729\ngini = 0.444\nsamples = 3\nvalue = [1, 2]"] ;
171 -> 172 ;
173 [label="gini = 0.0\nsamples = 2\nvalue = [0, 2]"] ;
172 -> 173 ;
174 [label="gini = 0.0\nsamples = 1\nvalue = [1, 0]"] ;
172 -> 174 ;
175 [label="X[37] <= 0.715\ngini = 0.091\nsamples = 42\nvalue = [40, 2]"] ;
171 -> 175 ;
176 [label="gini = 0.0\nsamples = 1\nvalue = [0, 1]"] ;
175 -> 176 ;
177 [label="X[41] <= 0.205\ngini = 0.048\nsamples = 41\nvalue = [40, 1]"] ;
175 -> 177 ;
178 [label="gini = 0.0\nsamples = 37\nvalue = [37, 0]"] ;
177 -> 178 ;
179 [label="X[22] <= 0.5\ngini = 0.375\nsamples = 4\nvalue = [3, 1]"] ;
177 -> 179 ;
180 [label="gini = 0.0\nsamples = 3\nvalue = [3, 0]"] ;
179 -> 180 ;
181 [label="gini = 0.0\nsamples = 1\nvalue = [0, 1]"] ;
179 -> 181 ;
182 [label="X[13] <= 0.445\ngini = 0.444\nsamples = 9\nvalue = [6, 3]"] ;
156 -> 182 ;
183 [label="gini = 0.0\nsamples = 3\nvalue = [0, 3]"] ;
182 -> 183 ;
184 [label="gini = 0.0\nsamples = 6\nvalue = [6, 0]"] ;
182 -> 184 ;
185 [label="X[15] <= 0.102\ngini = 0.013\nsamples = 312\nvalue = [310, 2]"] ;
155 -> 185 ;
186 [label="X[41] <= 0.225\ngini = 0.007\nsamples = 299\nvalue = [298, 1]"] ;
185 -> 186 ;
187 [label="gini = 0.0\nsamples = 280\nvalue = [280, 0]"] ;
186 -> 187 ;
188 [label="X[17] <= 0.5\ngini = 0.1\nsamples = 19\nvalue = [18, 1]"] ;
186 -> 188 ;
189 [label="gini = 0.0\nsamples = 18\nvalue = [18, 0]"] ;
188 -> 189 ;
190 [label="gini = 0.0\nsamples = 1\nvalue = [0, 1]"] ;
188 -> 190 ;
191 [label="X[6] <= 0.534\ngini = 0.142\nsamples = 13\nvalue = [12, 1]"] ;
185 -> 191 ;
192 [label="gini = 0.0\nsamples = 12\nvalue = [12, 0]"] ;
191 -> 192 ;
193 [label="gini = 0.0\nsamples = 1\nvalue = [0, 1]"] ;
191 -> 193 ;
194 [label="X[32] <= 0.5\ngini = 0.32\nsamples = 35\nvalue = [28, 7]"] ;
150 -> 194 ;
195 [label="gini = 0.0\nsamples = 2\nvalue = [0, 2]"] ;
194 -> 195 ;
196 [label="X[7] <= 0.333\ngini = 0.257\nsamples = 33\nvalue = [28, 5]"] ;
194 -> 196 ;
197 [label="X[23] <= 0.865\ngini = 0.133\nsamples = 28\nvalue = [26, 2]"] ;
196 -> 197 ;
198 [label="gini = 0.0\nsamples = 1\nvalue = [0, 1]"] ;
197 -> 198 ;
199 [label="X[31] <= 0.492\ngini = 0.071\nsamples = 27\nvalue = [26, 1]"] ;
197 -> 199 ;
200 [label="gini = 0.0\nsamples = 25\nvalue = [25, 0]"] ;
199 -> 200 ;
201 [label="X[39] <= 0.061\ngini = 0.5\nsamples = 2\nvalue = [1, 1]"] ;
199 -> 201 ;
202 [label="gini = 0.0\nsamples = 1\nvalue = [1, 0]"] ;
201 -> 202 ;
203 [label="gini = 0.0\nsamples = 1\nvalue = [0, 1]"] ;
201 -> 203 ;
204 [label="X[29] <= 0.505\ngini = 0.48\nsamples = 5\nvalue = [2, 3]"] ;
196 -> 204 ;
205 [label="gini = 0.0\nsamples = 3\nvalue = [0, 3]"] ;
204 -> 205 ;
206 [label="gini = 0.0\nsamples = 2\nvalue = [2, 0]"] ;
204 -> 206 ;
}
